FANN_FLO_2.1
num_layers=3
learning_rate=0.700000
connection_rate=1.000000
network_type=0
learning_momentum=0.000000
training_algorithm=2
train_error_function=1
train_stop_function=0
cascade_output_change_fraction=0.010000
quickprop_decay=-0.000100
quickprop_mu=1.750000
rprop_increase_factor=1.200000
rprop_decrease_factor=0.500000
rprop_delta_min=0.000000
rprop_delta_max=50.000000
rprop_delta_zero=0.100000
cascade_output_stagnation_epochs=12
cascade_candidate_change_fraction=0.010000
cascade_candidate_stagnation_epochs=12
cascade_max_out_epochs=150
cascade_min_out_epochs=50
cascade_max_cand_epochs=150
cascade_min_cand_epochs=50
cascade_num_candidate_groups=2
bit_fail_limit=9.99999977648258210000e-003
cascade_candidate_limit=1.00000000000000000000e+003
cascade_weight_multiplier=4.00000005960464480000e-001
cascade_activation_functions_count=10
cascade_activation_functions=3 5 7 8 10 11 14 15 16 17 
cascade_activation_steepnesses_count=4
cascade_activation_steepnesses=2.50000000000000000000e-001 5.00000000000000000000e-001 7.50000000000000000000e-001 1.00000000000000000000e+000 
layer_sizes=9 8 4 
scale_included=0
neurons (num_inputs, activation_function, activation_steepness)=(0, 0, 0.00000000000000000000e+000) (0, 0, 0.00000000000000000000e+000) (0, 0, 0.00000000000000000000e+000) (0, 0, 0.00000000000000000000e+000) (0, 0, 0.00000000000000000000e+000) (0, 0, 0.00000000000000000000e+000) (0, 0, 0.00000000000000000000e+000) (0, 0, 0.00000000000000000000e+000) (0, 0, 0.00000000000000000000e+000) (9, 4, 5.00000000000000000000e-001) (9, 4, 5.00000000000000000000e-001) (9, 4, 5.00000000000000000000e-001) (9, 4, 5.00000000000000000000e-001) (9, 4, 5.00000000000000000000e-001) (9, 4, 5.00000000000000000000e-001) (9, 4, 5.00000000000000000000e-001) (0, 0, 0.00000000000000000000e+000) (8, 4, 5.00000000000000000000e-001) (8, 4, 5.00000000000000000000e-001) (8, 4, 5.00000000000000000000e-001) (0, 0, 0.00000000000000000000e+000) 
connections (connected_to_neuron, weight)=(0, -3.32031250000000000000e-002) (1, -8.51318389177322390000e-002) (2, 1.29943853244185450000e-002) (3, 3.79333496093750000000e-002) (4, -1.46168682105383620000e+030) (5, 4.42880898437500000000e+004) (6, 4.42880390625000000000e+004) (7, 4.42880898437500000000e+004) (8, 7.94703438878059390000e-002) (0, -1.19323730468750000000e-002) (1, 8.17932114005088810000e-002) (2, -1.09619144350290300000e-002) (3, 7.22656250000000000000e-002) (4, 2.83882019913693750000e+029) (5, -7.50699560546875000000e+003) (6, -7.50701904296875000000e+003) (7, -7.50699560546875000000e+003) (8, 4.70364615321159360000e-002) (0, 3.04199215024709700000e-002) (1, 1.48376468569040300000e-002) (2, 3.68713401257991790000e-002) (3, 6.12182635813951490000e-003) (4, -3.69715243090752280000e+029) (5, 1.02862187500000000000e+004) (6, 1.02862656250000000000e+004) (7, 1.02862246093750000000e+004) (8, 6.47235661745071410000e-002) (0, -5.17211928963661190000e-002) (1, -9.13452133536338810000e-002) (2, 2.83386241644620900000e-002) (3, 6.75354003906250000000e-002) (4, -6.09605340233568450000e+029) (5, 1.74962773437500000000e+004) (6, 1.74962500000000000000e+004) (7, 1.74962109375000000000e+004) (8, -5.57598918676376340000e-002) (0, 9.51599106192588810000e-002) (1, 2.31323242187500000000e-002) (2, -1.64489746093750000000e-002) (3, -8.58764648437500000000e-002) (4, -1.82645782199488770000e+030) (5, 5.38611523437500000000e+004) (6, 5.38610078125000000000e+004) (7, 5.38611210937500000000e+004) (8, 3.79078164696693420000e-002) (0, -2.85766609013080600000e-002) (1, 9.27978530526161190000e-002) (2, 5.91613762080669400000e-002) (3, -6.48803729563951490000e-003) (4, -1.80215282173871790000e+030) (5, 5.32353671875000000000e+004) (6, 5.32353984375000000000e+004) (7, 5.32352851562500000000e+004) (8, -2.71925646811723710000e-002) (0, -1.07421877328306440000e-003) (1, -3.43566909432411190000e-002) (2, -8.09875503182411190000e-002) (3, 4.54895012080669400000e-002) (4, 1.09985622993754240000e+030) (5, -3.05829199218750000000e+004) (6, -3.05828886718750000000e+004) (7, -3.05829824218750000000e+004) (8, 5.38736721500754360000e-003) (9, -1.56892284750938420000e-001) (10, 8.56525152921676640000e-002) (11, -7.24206585437059400000e-003) (12, -9.53343659639358520000e-002) (13, -1.45674020051956180000e-001) (14, -1.35294750332832340000e-001) (15, 1.89354762434959410000e-001) (16, 7.12564438581466670000e-002) (9, -1.05789586901664730000e-001) (10, 1.42380639910697940000e-001) (11, 4.08752448856830600000e-002) (12, 3.04720867425203320000e-002) (13, -2.10682004690170290000e-001) (14, -1.95295035839080810000e-001) (15, 1.56063303351402280000e-001) (16, 4.55155447125434880000e-002) (9, 3.93125683069229130000e-001) (10, 1.23998168855905530000e-002) (11, -1.98364257812500000000e-002) (12, 4.30202692747116090000e-001) (13, 3.59330534934997560000e-001) (14, 3.61832976341247560000e-001) (15, 4.97703775763511660000e-002) (16, 2.84528017044067380000e-001) 
