FANN_FLO_2.1
num_layers=3
learning_rate=0.700000
connection_rate=1.000000
network_type=0
learning_momentum=0.000000
training_algorithm=2
train_error_function=1
train_stop_function=0
cascade_output_change_fraction=0.010000
quickprop_decay=-0.000100
quickprop_mu=1.750000
rprop_increase_factor=1.200000
rprop_decrease_factor=0.500000
rprop_delta_min=0.000000
rprop_delta_max=50.000000
rprop_delta_zero=0.100000
cascade_output_stagnation_epochs=12
cascade_candidate_change_fraction=0.010000
cascade_candidate_stagnation_epochs=12
cascade_max_out_epochs=150
cascade_min_out_epochs=50
cascade_max_cand_epochs=150
cascade_min_cand_epochs=50
cascade_num_candidate_groups=2
bit_fail_limit=3.49999994039535520000e-001
cascade_candidate_limit=1.00000000000000000000e+003
cascade_weight_multiplier=4.00000005960464480000e-001
cascade_activation_functions_count=10
cascade_activation_functions=3 5 7 8 10 11 14 15 16 17 
cascade_activation_steepnesses_count=4
cascade_activation_steepnesses=2.50000000000000000000e-001 5.00000000000000000000e-001 7.50000000000000000000e-001 1.00000000000000000000e+000 
layer_sizes=9 8 4 
scale_included=0
neurons (num_inputs, activation_function, activation_steepness)=(0, 0, 0.00000000000000000000e+000) (0, 0, 0.00000000000000000000e+000) (0, 0, 0.00000000000000000000e+000) (0, 0, 0.00000000000000000000e+000) (0, 0, 0.00000000000000000000e+000) (0, 0, 0.00000000000000000000e+000) (0, 0, 0.00000000000000000000e+000) (0, 0, 0.00000000000000000000e+000) (0, 0, 0.00000000000000000000e+000) (9, 4, 5.00000000000000000000e-001) (9, 4, 5.00000000000000000000e-001) (9, 4, 5.00000000000000000000e-001) (9, 4, 5.00000000000000000000e-001) (9, 4, 5.00000000000000000000e-001) (9, 4, 5.00000000000000000000e-001) (9, 4, 5.00000000000000000000e-001) (0, 0, 0.00000000000000000000e+000) (8, 4, 5.00000000000000000000e-001) (8, 4, 5.00000000000000000000e-001) (8, 4, 5.00000000000000000000e-001) (0, 0, 0.00000000000000000000e+000) 
connections (connected_to_neuron, weight)=(0, -4.72656264901161190000e-002) (1, 9.90966781973838810000e-002) (2, -3.81774902343750000000e-002) (3, 4.04052762314677240000e-003) (4, 7.86621123552322390000e-002) (5, 7.35290572047233580000e-002) (6, 6.50512725114822390000e-002) (7, -3.48510742187500000000e-002) (8, -6.82189986109733580000e-002) (0, 5.83435073494911190000e-002) (1, 1.75476074218750000000e-002) (2, -3.15002463757991790000e-002) (3, -5.71289053186774250000e-003) (4, 8.79089385271072390000e-002) (5, -2.66845710575580600000e-002) (6, 8.06945785880088810000e-002) (7, -1.94458011537790300000e-002) (8, -2.33764648437500000000e-002) (0, -8.33984389901161190000e-002) (1, -3.33313010632991790000e-002) (2, -5.72814941406250000000e-002) (3, -7.28576704859733580000e-002) (4, 6.22070319950580600000e-002) (5, 1.37573247775435450000e-002) (6, -7.64465332031250000000e-002) (7, 9.68017578125000000000e-002) (8, -1.88110359013080600000e-002) (0, 7.95837417244911190000e-002) (1, -6.21704123914241790000e-002) (2, -2.15026866644620900000e-002) (3, 8.32336470484733580000e-002) (4, -3.00292968750000000000e-002) (5, -3.65478508174419400000e-002) (6, -4.77172844111919400000e-002) (7, -1.31408693268895150000e-002) (8, 5.32653816044330600000e-002) (0, -7.63854980468750000000e-002) (1, 6.39099106192588810000e-002) (2, 8.83178692311048510000e-003) (3, -8.28186050057411190000e-002) (4, -5.87768554687500000000e-002) (5, -1.34338382631540300000e-002) (6, -9.60937514901161190000e-002) (7, 7.44812041521072390000e-002) (8, 4.68139648437500000000e-002) (0, 2.20642089843750000000e-002) (1, 8.62609893083572390000e-002) (2, 2.37548835575580600000e-002) (3, 2.12890636175870900000e-002) (4, 9.77539047598838810000e-002) (5, 6.37878403067588810000e-002) (6, 7.15148970484733580000e-002) (7, -4.54040542244911190000e-002) (8, 1.53808593750000000000e-002) (0, -8.34716781973838810000e-002) (1, 2.18566898256540300000e-002) (2, 1.71508791390806440000e-003) (3, -9.18945297598838810000e-002) (4, -4.94812019169330600000e-002) (5, -6.00341819226741790000e-002) (6, -8.28186050057411190000e-002) (7, -3.79272475838661190000e-002) (8, -4.17358390986919400000e-002) (9, 9.57153365015983580000e-002) (10, 4.93164062500000000000e-002) (11, -4.14428710937500000000e-002) (12, 1.70959476381540300000e-002) (13, 9.35302749276161190000e-002) (14, -2.44750976562500000000e-002) (15, 9.31701660156250000000e-002) (16, 5.66650405526161190000e-002) (9, 9.49279814958572390000e-002) (10, 5.98449707031250000000e-002) (11, 2.82348636537790300000e-002) (12, -7.31262192130088810000e-002) (13, -6.02294914424419400000e-002) (14, -8.60168486833572390000e-002) (15, 3.45642082393169400000e-002) (16, -2.63061537407338620000e-003) (9, 7.27172866463661190000e-002) (10, 4.31579612195491790000e-002) (11, -2.09777839481830600000e-002) (12, 2.00073253363370900000e-002) (13, 8.09020996093750000000e-002) (14, 5.79284690320491790000e-002) (15, 1.40014654025435450000e-002) (16, 8.53820815682411190000e-002) 
