FANN_FLO_2.1
num_layers=3
learning_rate=0.700000
connection_rate=1.000000
network_type=0
learning_momentum=0.000000
training_algorithm=2
train_error_function=1
train_stop_function=0
cascade_output_change_fraction=0.010000
quickprop_decay=-0.000100
quickprop_mu=1.750000
rprop_increase_factor=1.200000
rprop_decrease_factor=0.500000
rprop_delta_min=0.000000
rprop_delta_max=50.000000
rprop_delta_zero=0.100000
cascade_output_stagnation_epochs=12
cascade_candidate_change_fraction=0.010000
cascade_candidate_stagnation_epochs=12
cascade_max_out_epochs=150
cascade_min_out_epochs=50
cascade_max_cand_epochs=150
cascade_min_cand_epochs=50
cascade_num_candidate_groups=2
bit_fail_limit=9.99999977648258210000e-003
cascade_candidate_limit=1.00000000000000000000e+003
cascade_weight_multiplier=4.00000005960464480000e-001
cascade_activation_functions_count=10
cascade_activation_functions=3 5 7 8 10 11 14 15 16 17 
cascade_activation_steepnesses_count=4
cascade_activation_steepnesses=2.50000000000000000000e-001 5.00000000000000000000e-001 7.50000000000000000000e-001 1.00000000000000000000e+000 
layer_sizes=9 8 4 
scale_included=0
neurons (num_inputs, activation_function, activation_steepness)=(0, 0, 0.00000000000000000000e+000) (0, 0, 0.00000000000000000000e+000) (0, 0, 0.00000000000000000000e+000) (0, 0, 0.00000000000000000000e+000) (0, 0, 0.00000000000000000000e+000) (0, 0, 0.00000000000000000000e+000) (0, 0, 0.00000000000000000000e+000) (0, 0, 0.00000000000000000000e+000) (0, 0, 0.00000000000000000000e+000) (9, 4, 5.00000000000000000000e-001) (9, 4, 5.00000000000000000000e-001) (9, 4, 5.00000000000000000000e-001) (9, 4, 5.00000000000000000000e-001) (9, 4, 5.00000000000000000000e-001) (9, 4, 5.00000000000000000000e-001) (9, 4, 5.00000000000000000000e-001) (0, 0, 0.00000000000000000000e+000) (8, 4, 5.00000000000000000000e-001) (8, 4, 5.00000000000000000000e-001) (8, 4, 5.00000000000000000000e-001) (0, 0, 0.00000000000000000000e+000) 
connections (connected_to_neuron, weight)=(0, -4.58374014124274250000e-003) (1, -9.86206084489822390000e-002) (2, 7.54882842302322390000e-002) (3, -3.30566428601741790000e-002) (4, -6.59742977190504890000e+030) (5, 1.96670484375000000000e+005) (6, 1.96670546875000000000e+005) (7, 1.96670515625000000000e+005) (8, 2.96319983899593350000e-002) (0, 8.34899917244911190000e-002) (1, 7.48474150896072390000e-002) (2, 8.25683623552322390000e-002) (3, -5.83251975476741790000e-002) (4, -1.15495405175342580000e+031) (5, 3.44342750000000000000e+005) (6, 3.44342562500000000000e+005) (7, 3.44342625000000000000e+005) (8, 3.20347696542739870000e-002) (0, 3.39538566768169400000e-002) (1, 3.79211418330669400000e-002) (2, -4.97741699218750000000e-002) (3, -3.28674316406250000000e-002) (4, 6.57033581000617370000e+031) (5, -1.95740512500000000000e+006) (6, -1.95740512500000000000e+006) (7, -1.95740512500000000000e+006) (8, 1.07975862920284270000e-001) (0, 6.35925307869911190000e-002) (1, 9.17175337672233580000e-002) (2, 9.41894575953483580000e-002) (3, -8.12927260994911190000e-002) (4, -1.22389244215404020000e+031) (5, 3.64947125000000000000e+005) (6, 3.64947093750000000000e+005) (7, 3.64947125000000000000e+005) (8, -8.12857225537300110000e-002) (0, 7.93151855468750000000e-002) (1, -2.60192882269620900000e-002) (2, -4.44519035518169400000e-002) (3, 2.10693366825580600000e-002) (4, -8.61908257012364410000e+030) (5, 2.56954062500000000000e+005) (6, 2.56953937500000000000e+005) (7, 2.56953968750000000000e+005) (8, 1.93171203136444090000e-002) (0, -9.69543457031250000000e-002) (1, -7.15393051505088810000e-002) (2, -6.47094771265983580000e-002) (3, 9.16320830583572390000e-002) (4, 6.60297197143249020000e+031) (5, -1.96731537500000000000e+006) (6, -1.96731525000000000000e+006) (7, -1.96731537500000000000e+006) (8, -3.95514778792858120000e-002) (0, -8.77319350838661190000e-002) (1, -8.10058638453483580000e-002) (2, 2.02880855649709700000e-002) (3, 3.31726074218750000000e-002) (4, 5.22396382896726240000e+031) (5, -1.55567387500000000000e+006) (6, -1.55567387500000000000e+006) (7, -1.55567387500000000000e+006) (8, 7.63840824365615840000e-002) (9, -3.60769219696521760000e-002) (10, -7.01721236109733580000e-002) (11, 9.83294725418090820000e-001) (12, -8.15856978297233580000e-002) (13, -4.96816597878932950000e-002) (14, 1.01109004020690920000e+000) (15, 3.04174923896789550000e+000) (16, 3.92153310775756840000e+000) (9, 1.81335452944040300000e-002) (10, -8.40332061052322390000e-002) (11, 5.04565238952636720000e-001) (12, 6.11755363643169400000e-002) (13, -5.57373054325580600000e-002) (14, 4.49450492858886720000e-001) (15, 2.25869655609130860000e-001) (16, 4.13421392440795900000e-001) (9, -8.09509307146072390000e-002) (10, -2.18749996274709700000e-002) (11, 7.50971734523773190000e-001) (12, -8.69689956307411190000e-002) (13, -3.62487807869911190000e-002) (14, 6.46522283554077150000e-001) (15, 5.85285663604736330000e-001) (16, 6.38972222805023190000e-001) 
