FANN_FLO_2.1
num_layers=3
learning_rate=0.700000
connection_rate=1.000000
network_type=0
learning_momentum=0.000000
training_algorithm=2
train_error_function=1
train_stop_function=0
cascade_output_change_fraction=0.010000
quickprop_decay=-0.000100
quickprop_mu=1.750000
rprop_increase_factor=1.200000
rprop_decrease_factor=0.500000
rprop_delta_min=0.000000
rprop_delta_max=50.000000
rprop_delta_zero=0.100000
cascade_output_stagnation_epochs=12
cascade_candidate_change_fraction=0.010000
cascade_candidate_stagnation_epochs=12
cascade_max_out_epochs=150
cascade_min_out_epochs=50
cascade_max_cand_epochs=150
cascade_min_cand_epochs=50
cascade_num_candidate_groups=2
bit_fail_limit=3.49999994039535520000e-001
cascade_candidate_limit=1.00000000000000000000e+003
cascade_weight_multiplier=4.00000005960464480000e-001
cascade_activation_functions_count=10
cascade_activation_functions=3 5 7 8 10 11 14 15 16 17 
cascade_activation_steepnesses_count=4
cascade_activation_steepnesses=2.50000000000000000000e-001 5.00000000000000000000e-001 7.50000000000000000000e-001 1.00000000000000000000e+000 
layer_sizes=9 8 4 
scale_included=0
neurons (num_inputs, activation_function, activation_steepness)=(0, 0, 0.00000000000000000000e+000) (0, 0, 0.00000000000000000000e+000) (0, 0, 0.00000000000000000000e+000) (0, 0, 0.00000000000000000000e+000) (0, 0, 0.00000000000000000000e+000) (0, 0, 0.00000000000000000000e+000) (0, 0, 0.00000000000000000000e+000) (0, 0, 0.00000000000000000000e+000) (0, 0, 0.00000000000000000000e+000) (9, 4, 5.00000000000000000000e-001) (9, 4, 5.00000000000000000000e-001) (9, 4, 5.00000000000000000000e-001) (9, 4, 5.00000000000000000000e-001) (9, 4, 5.00000000000000000000e-001) (9, 4, 5.00000000000000000000e-001) (9, 4, 5.00000000000000000000e-001) (0, 0, 0.00000000000000000000e+000) (8, 4, 5.00000000000000000000e-001) (8, 4, 5.00000000000000000000e-001) (8, 4, 5.00000000000000000000e-001) (0, 0, 0.00000000000000000000e+000) 
connections (connected_to_neuron, weight)=(0, -9.20166000723838810000e-002) (1, -2.42675784975290300000e-002) (2, -5.48706064000725750000e-003) (3, -5.10742180049419400000e-002) (4, -7.71240219473838810000e-002) (5, -1.88659671694040300000e-002) (6, 9.09545943140983580000e-002) (7, -6.70349150896072390000e-002) (8, -8.33435058593750000000e-002) (0, 6.40624985098838810000e-002) (1, -5.64880371093750000000e-002) (2, -1.11145023256540300000e-002) (3, -4.46044914424419400000e-002) (4, -1.34399412199854850000e-002) (5, 8.52600112557411190000e-002) (6, -4.02648933231830600000e-002) (7, 8.30810591578483580000e-002) (8, -2.77099618688225750000e-003) (0, -7.12768584489822390000e-002) (1, 3.30322273075580600000e-002) (2, -3.81103530526161190000e-002) (3, -6.45874068140983580000e-002) (4, -2.17834468930959700000e-002) (5, -7.12463408708572390000e-002) (6, 3.31481955945491790000e-002) (7, -2.66601573675870900000e-002) (8, -7.15148970484733580000e-002) (0, 2.83813476562500000000e-002) (1, 5.52307143807411190000e-002) (2, 2.73681636899709700000e-002) (3, -4.40551750361919400000e-002) (4, -7.38037154078483580000e-002) (5, -2.52929683774709700000e-002) (6, -3.03771980106830600000e-002) (7, 8.75244196504354480000e-003) (8, -1.59179698675870900000e-002) (0, -1.31164556369185450000e-002) (1, 7.13073760271072390000e-002) (2, 1.94702146109193560000e-003) (3, -2.89062503725290300000e-002) (4, -5.79040534794330600000e-002) (5, 8.85009765625000000000e-003) (6, -7.61047378182411190000e-002) (7, -3.09265144169330600000e-002) (8, -4.60571311414241790000e-002) (0, 6.42395019531250000000e-002) (1, -3.96118164062500000000e-002) (2, 2.54638679325580600000e-002) (3, -3.43200676143169400000e-002) (4, 5.07263205945491790000e-002) (5, 4.24682609736919400000e-002) (6, -6.52709975838661190000e-002) (7, -6.88415542244911190000e-002) (8, -4.83398465439677240000e-003) (0, -7.55981430411338810000e-002) (1, 2.94616706669330600000e-002) (2, -3.36364768445491790000e-002) (3, -9.17175337672233580000e-002) (4, -2.02636723406612870000e-003) (5, -3.74572761356830600000e-002) (6, -7.20153823494911190000e-002) (7, 7.40234404802322390000e-002) (8, -5.06652854382991790000e-002) (9, -3.84338386356830600000e-002) (10, -2.48535163700580600000e-002) (11, -1.06689454987645150000e-002) (12, 6.46850615739822390000e-002) (13, -6.32446333765983580000e-002) (14, -2.94006355106830600000e-002) (15, -1.44226076081395150000e-002) (16, 9.10522490739822390000e-002) (9, -7.63000473380088810000e-002) (10, 7.76306167244911190000e-002) (11, 6.28234893083572390000e-002) (12, 5.83862327039241790000e-002) (13, 4.20349128544330600000e-002) (14, 8.92333965748548510000e-003) (15, -3.16833518445491790000e-002) (16, -3.07861324399709700000e-002) (9, 5.14282248914241790000e-002) (10, 8.35815444588661190000e-002) (11, 5.02807609736919400000e-002) (12, -3.78234870731830600000e-002) (13, 8.60961899161338810000e-002) (14, -5.13305664062500000000e-002) (15, -8.16040039062500000000e-002) (16, 5.55603019893169400000e-002) 
