FANN_FLO_2.1
num_layers=3
learning_rate=0.700000
connection_rate=1.000000
network_type=0
learning_momentum=0.000000
training_algorithm=2
train_error_function=1
train_stop_function=0
cascade_output_change_fraction=0.010000
quickprop_decay=-0.000100
quickprop_mu=1.750000
rprop_increase_factor=1.200000
rprop_decrease_factor=0.500000
rprop_delta_min=0.000000
rprop_delta_max=50.000000
rprop_delta_zero=0.100000
cascade_output_stagnation_epochs=12
cascade_candidate_change_fraction=0.010000
cascade_candidate_stagnation_epochs=12
cascade_max_out_epochs=150
cascade_min_out_epochs=50
cascade_max_cand_epochs=150
cascade_min_cand_epochs=50
cascade_num_candidate_groups=2
bit_fail_limit=9.99999977648258210000e-003
cascade_candidate_limit=1.00000000000000000000e+003
cascade_weight_multiplier=4.00000005960464480000e-001
cascade_activation_functions_count=10
cascade_activation_functions=3 5 7 8 10 11 14 15 16 17 
cascade_activation_steepnesses_count=4
cascade_activation_steepnesses=2.50000000000000000000e-001 5.00000000000000000000e-001 7.50000000000000000000e-001 1.00000000000000000000e+000 
layer_sizes=9 8 4 
scale_included=0
neurons (num_inputs, activation_function, activation_steepness)=(0, 0, 0.00000000000000000000e+000) (0, 0, 0.00000000000000000000e+000) (0, 0, 0.00000000000000000000e+000) (0, 0, 0.00000000000000000000e+000) (0, 0, 0.00000000000000000000e+000) (0, 0, 0.00000000000000000000e+000) (0, 0, 0.00000000000000000000e+000) (0, 0, 0.00000000000000000000e+000) (0, 0, 0.00000000000000000000e+000) (9, 4, 5.00000000000000000000e-001) (9, 4, 5.00000000000000000000e-001) (9, 4, 5.00000000000000000000e-001) (9, 4, 5.00000000000000000000e-001) (9, 4, 5.00000000000000000000e-001) (9, 4, 5.00000000000000000000e-001) (9, 4, 5.00000000000000000000e-001) (0, 0, 0.00000000000000000000e+000) (8, 4, 5.00000000000000000000e-001) (8, 4, 5.00000000000000000000e-001) (8, 4, 5.00000000000000000000e-001) (0, 0, 0.00000000000000000000e+000) 
connections (connected_to_neuron, weight)=(0, -4.58374014124274250000e-003) (1, -9.86206084489822390000e-002) (2, 7.54882842302322390000e-002) (3, -3.30566428601741790000e-002) (4, -1.56793278314034010000e+031) (5, 4.66854125000000000000e+005) (6, 4.66854187500000000000e+005) (7, 4.66854156250000000000e+005) (8, 2.71157138049602510000e-002) (0, 8.34899917244911190000e-002) (1, 7.48474150896072390000e-002) (2, 8.25683623552322390000e-002) (3, -5.83251975476741790000e-002) (4, -2.97580523847468680000e+031) (5, 8.86038500000000000000e+005) (6, 8.86038312500000000000e+005) (7, 8.86038375000000000000e+005) (8, 2.69896928220987320000e-002) (0, 3.39538566768169400000e-002) (1, 3.79211418330669400000e-002) (2, -4.97741699218750000000e-002) (3, -3.28674316406250000000e-002) (4, 9.07131744401101900000e+032) (5, -2.70008400000000000000e+007) (6, -2.70008400000000000000e+007) (7, -2.70008400000000000000e+007) (8, 3.41210544109344480000e-001) (0, 6.35925307869911190000e-002) (1, 9.17175337672233580000e-002) (2, 9.41894575953483580000e-002) (3, -8.12927260994911190000e-002) (4, -2.91242319203360310000e+031) (5, 8.67200625000000000000e+005) (6, 8.67200625000000000000e+005) (7, 8.67200625000000000000e+005) (8, -8.59628021717071530000e-002) (0, 7.93151855468750000000e-002) (1, -2.60192882269620900000e-002) (2, -4.44519035518169400000e-002) (3, 2.10693366825580600000e-002) (4, -2.19869877557533800000e+031) (5, 6.54652687500000000000e+005) (6, 6.54652562500000000000e+005) (7, 6.54652562500000000000e+005) (8, 1.56134394928812980000e-002) (0, -9.69543457031250000000e-002) (1, -7.15393051505088810000e-002) (2, -6.47094771265983580000e-002) (3, 9.16320830583572390000e-002) (4, 9.07879073328567990000e+032) (5, -2.70230600000000000000e+007) (6, -2.70230600000000000000e+007) (7, -2.70230600000000000000e+007) (8, 1.93798229098320010000e-001) (0, -8.77319350838661190000e-002) (1, -8.10058638453483580000e-002) (2, 2.02880855649709700000e-002) (3, 3.31726074218750000000e-002) (4, 1.29785912255188110000e+033) (5, -3.86209160000000000000e+007) (6, -3.86209160000000000000e+007) (7, -3.86209160000000000000e+007) (8, 4.21580821275711060000e-001) (9, -3.60769219696521760000e-002) (10, -7.01721236109733580000e-002) (11, 6.69103097915649410000e+000) (12, -8.15856978297233580000e-002) (13, -4.96816597878932950000e-002) (14, 6.71882438659667970000e+000) (15, 8.74945735931396480000e+000) (16, 9.62924480438232420000e+000) (9, 1.81335452944040300000e-002) (10, -8.40332061052322390000e-002) (11, 1.58440387248992920000e+000) (12, 6.11755363643169400000e-002) (13, -5.57373054325580600000e-002) (14, 1.52928912639617920000e+000) (15, 1.30570852756500240000e+000) (16, 1.49326002597808840000e+000) (9, -8.09509307146072390000e-002) (10, -2.18749996274709700000e-002) (11, 1.58888983726501460000e+000) (12, -8.69689956307411190000e-002) (13, -3.62487807869911190000e-002) (14, 1.48444032669067380000e+000) (15, 1.42320370674133300000e+000) (16, 1.47689032554626460000e+000) 
